/* Auto-generated AMPC policy data. */
#include "ampc_policy_data.h"

#include <math.h>

#ifdef __cplusplus
extern "C" {
#endif

const ampc_policy_float_t ampc_policy_x_mean[AMPC_POLICY_INPUT_DIM] = {
    -0.000139739583f, -0.00145598163f, -0.0948170796f, -0.000168726707f, 0.000125737075f, -9.35403004e-05f, -0.000779945694f, 0.00268611638f,
    -0.0483044349f, 0.000140517979f, 0.000943277264f, 0.000480383052f

};

const ampc_policy_float_t ampc_policy_x_std[AMPC_POLICY_INPUT_DIM] = {
    0.372665823f, 0.360750109f, 0.384144157f, 0.34869653f, 0.346462518f, 0.124498293f, 0.803228259f, 0.858864129f,
    0.814878762f, 3.74726105f, 3.5798285f, 0.590287507f

};

const ampc_policy_float_t ampc_policy_y_mean[AMPC_POLICY_OUTPUT_DIM] = {
    -9.5272313e-05f, 0.000122321973f, -0.000101398546f, 0.0598712228f

};

const ampc_policy_float_t ampc_policy_y_std[AMPC_POLICY_OUTPUT_DIM] = {
    0.20639886f, 0.213889971f, 0.224651113f, 0.154950291f

};

const ampc_policy_float_t ampc_policy_y_clip_low[AMPC_POLICY_OUTPUT_DIM] = {
    -1.65128613f, -1.71099746f, -1.79731035f, -1.17973113f

};

const ampc_policy_float_t ampc_policy_y_clip_high[AMPC_POLICY_OUTPUT_DIM] = {
    1.65109563f, 1.71124208f, 1.79710746f, 1.29947352f

};

static const ampc_policy_float_t ampc_policy_layer_0_weights[384u] = {
    -0.118837155f, -0.229817957f, 0.149153545f, -0.0390655361f, -0.226446137f, -0.137395069f, 0.0602345765f, -0.195805132f, 0.103903867f, 0.228182748f, 0.279440314f, -0.0253508817f,
    0.374496251f, -0.151767224f, 0.350109398f, 0.152059361f, -0.309134364f, -0.118082754f, 0.362579197f, -0.125138491f, 0.327263534f, 0.00830133446f, -0.102881692f, 0.0362415388f,
    -0.673425972f, -0.119066f, -0.163802698f, 0.0818790123f, 0.157843381f, -0.0880951583f, -0.418375552f, -0.0908782259f, -0.105214208f, 0.00418269495f, -0.104733564f, -0.0416923203f,
    0.455004394f, 0.388243198f, -0.14764978f, -0.713160336f, -0.338227987f, 0.0486323461f, 0.251329511f, 0.623649001f, -0.0797843486f, -0.140345454f, -0.0994113833f, -0.0576547049f,
    -0.15761067f, 0.378874987f, -0.399146557f, -0.131619543f, 0.203053921f, 0.294439077f, -0.0480077341f, 0.313169271f, -0.339949995f, -0.155272335f, 0.0105558438f, 0.143271804f,
    0.037654683f, -0.905135214f, 0.101055652f, -0.296432108f, -0.0196811166f, 0.0564601608f, -0.0131054418f, -0.618664801f, 0.0599640012f, 0.187194586f, 0.0298640057f, 0.0521414168f,
    -0.192589745f, 0.0515151657f, 0.0661536157f, 0.590185285f, -0.325253546f, -0.101217568f, -0.194942474f, 0.0147642577f, 0.0495754927f, 0.0644059777f, -0.46403113f, 0.066953674f,
    0.39936623f, 0.381187469f, -0.0264992006f, 0.794316411f, 0.549533606f, 0.190989345f, 0.519886553f, 0.407058328f, 0.00417671259f, 0.154795736f, -0.126857802f, -0.0236173756f,
    0.245778278f, -0.404865801f, 0.171474919f, -0.158573508f, 0.359085023f, 0.227584213f, 0.114967823f, -0.382859409f, 0.1182926f, -0.0469603427f, -0.126729921f, 0.0925228074f,
    -0.31134972f, 0.597042203f, 0.0244084969f, 1.0734601f, -0.556079149f, -0.0277684126f, -0.425748378f, 0.608416617f, -0.00539011136f, 0.167206049f, 0.291666746f, 0.141861796f,
    -0.105105147f, -0.212299079f, -0.253888667f, -0.542333901f, 0.0874545425f, -0.104450673f, -0.0414258502f, 0.0416938104f, -0.214094102f, 0.0995086655f, 0.218772575f, -0.284911931f,
    -0.391124249f, -0.127950072f, -0.208529577f, 0.0441272371f, -0.603134096f, -0.00316583714f, -0.468337059f, -0.213588655f, -0.141380697f, 0.137207046f, -0.164689645f, -0.0179539882f,
    -0.60945195f, -0.321591616f, 0.0251781344f, 0.543156683f, -0.365686357f, 0.411751986f, -0.456547558f, -0.2047562f, -0.0231659431f, 0.00196500751f, 0.0799915045f, 0.171659231f,
    0.221475661f, -0.206389308f, -0.253970027f, -0.81555891f, 0.403779298f, -0.438185573f, 0.274619281f, -0.108412817f, -0.174402907f, -0.182190552f, 0.0490659997f, 0.0725582391f,
    -0.325117588f, 0.0621805042f, -0.562399209f, -0.545200109f, -0.61611712f, -0.0509495996f, -0.325073659f, 0.0313859023f, -0.428511709f, -0.463672251f, -0.32836014f, 0.046855703f,
    0.274511606f, -0.573123276f, 0.116006792f, 0.492922992f, -0.467461258f, 0.267258435f, -0.0197907146f, -0.763390243f, 0.0879542828f, 0.113231875f, -0.0980003774f, -0.0405530222f,
    0.473409623f, 0.0870194063f, -0.330917567f, 0.0201854166f, -0.426523685f, 0.542571485f, 0.261005163f, 0.0890868753f, -0.251661777f, 0.0209237579f, -0.0599044636f, 0.183781222f,
    0.17030634f, -0.256483197f, -0.0707785264f, 0.445043027f, 0.0357761532f, -0.387276977f, 0.036484044f, -0.0406416059f, -0.0518653803f, -0.176254973f, -0.0992592499f, -0.249075651f,
    0.0969761685f, 0.215546042f, -0.170742854f, 0.643860757f, 0.455322444f, -0.364449501f, 0.176100627f, 0.31008026f, -0.240304381f, 0.22974962f, -0.0421298891f, 0.0591129847f,
    -0.151757106f, 0.123688735f, 0.397500187f, -0.232822463f, 0.277720898f, 0.0905801877f, -0.383097023f, 0.0983047932f, 0.486215711f, -0.0362089649f, -0.0274145957f, -0.0038647675f,
    0.597276151f, 0.0398475118f, -0.303745002f, -0.0912810043f, -0.206915513f, -0.355494291f, 0.357743204f, 0.00986942276f, -0.206957459f, 0.0119908089f, 0.184024468f, -0.0881651863f,
    -0.421440214f, 0.146948248f, 0.147067532f, -0.146072224f, -0.630200565f, -0.430340797f, -0.392326206f, 0.169749588f, 0.105363339f, 0.508036017f, -0.427343935f, -0.0236731376f,
    0.387764484f, 0.0563268624f, -0.607130826f, -0.0548417717f, 0.98690033f, 0.0466242097f, 0.013307211f, 0.0361414663f, -0.697966993f, 0.0751255974f, 0.123835124f, -0.0772880167f,
    0.207303569f, -0.269536972f, -0.297575325f, 0.378045648f, 0.14829427f, 0.117790945f, 0.173203096f, -0.208807603f, -0.20331952f, 0.130035713f, 0.184813634f, 0.0821651593f,
    -0.0197726525f, 0.48943767f, -0.0948216543f, 0.0347700082f, -0.0349610597f, -0.424333572f, -0.106114186f, 0.476280749f, -0.0798374116f, 0.0965906009f, -0.00774282124f, -0.279990733f,
    -0.0156751517f, 0.277370185f, 0.0607451834f, -0.30242753f, -0.223591432f, 0.078429997f, -0.101374634f, 0.391732097f, 0.08393161f, -0.275636166f, -0.0430076011f, 0.170327246f,
    0.137276977f, -0.0710560828f, 0.0679587871f, 0.336020589f, 0.500865996f, 0.118260279f, 0.229156315f, -0.354856223f, 0.0735282972f, -0.025730921f, 0.295122087f, -0.0583605953f,
    -0.1919415f, -0.0537527055f, -0.0645312518f, -0.653636694f, -0.19484216f, -0.274176329f, -0.22096324f, -0.141381085f, -0.132263958f, -0.148485705f, 0.213753372f, -0.0510966629f,
    0.0871639848f, -0.161689863f, -0.177932456f, -0.806279004f, 0.248432234f, 0.227119401f, 0.220543608f, -0.137207642f, -0.200488687f, -0.264893293f, -0.174171865f, -0.00370642589f,
    0.445648313f, 0.783941209f, 0.00473140925f, -0.739208043f, 0.253071755f, 0.271013886f, 0.336422622f, 0.724678397f, -0.0019845909f, 0.0752874315f, -0.0339252278f, 0.224023446f,
    0.467544287f, -0.16333659f, -0.175635636f, 0.174205318f, 0.712809861f, 0.517569482f, 0.435797721f, -0.176685825f, -0.124748662f, -0.568156183f, 0.46805957f, 0.00598301226f,
    -0.0201083962f, 0.310989529f, 0.0253151804f, 0.865693867f, -0.286368936f, 0.338639349f, -0.152037099f, 0.307961792f, -0.0244413279f, 0.188098654f, 0.176199943f, -0.00464769173f
};

static const ampc_policy_float_t ampc_policy_layer_0_biases[32u] = {
    0.782488346f, 0.782773197f, 0.293618977f, 0.0138304997f, 0.803593755f, -0.208174571f, 1.25921416f, 0.049373854f,
    1.05570066f, 0.438979357f, 0.87733984f, 0.791185796f, 0.517764688f, 0.872576118f, 0.092143923f, -0.100891821f,
    0.564659476f, 0.838554204f, -0.0555882342f, 0.0749294087f, 0.428223103f, -0.45522058f, 0.211817354f, 0.840074241f,
    0.997952998f, 1.11718345f, 0.788322926f, 0.672162354f, 1.02040088f, 0.635270774f, 0.489252746f, 1.03033245f
};

static const ampc_policy_float_t ampc_policy_layer_1_weights[1024u] = {
    -0.141279116f, 0.140555233f, 0.229135811f, -0.40413779f, 0.240498051f, 0.00586413732f, 0.436394602f, 0.704401195f, -0.33700937f, -0.26190871f, 0.207317322f, 0.118849374f, -0.299872458f, -0.0221196711f, -0.053196609f, 0.132966638f, 0.0723458678f, 0.390539616f, 0.0842865556f, -0.114290714f, 0.438891709f, 0.0573771261f, -0.105339974f, 0.279402524f, 0.787198424f, 0.0554483421f, 0.181129783f, 0.636916459f, -0.200674221f, -0.56986469f, -0.0955618396f, -0.162887082f,
    -0.111447714f, 0.119931132f, -0.0760219768f, 0.244480059f, 0.180279538f, 0.006303587f, 0.383481055f, 0.0299754869f, 0.0980911478f, 0.136339337f, 0.150472909f, 0.0749149993f, 0.0535440072f, 0.00723568955f, -0.0421385765f, -0.131424263f, 0.12032526f, -0.0211102124f, 0.228752419f, 0.0784777924f, 0.0821275786f, -0.0731695443f, -0.0955723524f, 0.0492386967f, 0.0887180045f, -0.130381852f, 0.0929787681f, 0.180008113f, -0.416949332f, -0.135120302f, 0.108422421f, -0.376607418f,
    -0.406648964f, 0.204292342f, -0.279693812f, 0.0629482791f, 0.195261702f, -0.240606651f, -0.218995839f, -0.24783963f, 0.329172015f, 0.2580145f, 0.0889163911f, 0.142236724f, -0.0201756675f, -0.112327762f, -0.229288399f, -0.446437657f, -0.197452217f, -0.383741707f, -0.332230657f, 0.209090069f, 0.0238987841f, 0.403326154f, -0.175083205f, 0.14872317f, 0.212428436f, -0.0473413914f, -0.0288392119f, -0.141686812f, 0.640399098f, -0.22988084f, -0.15452233f, 0.148952216f,
    0.101843931f, 0.14785336f, 0.0478152223f, 0.0593840033f, 0.549584806f, -0.0235520583f, -0.160092458f, 0.347105533f, -0.179775968f, 0.152614042f, -0.145223141f, 0.333653271f, 0.0810681209f, 0.213237867f, -0.239254624f, 0.0873370618f, 0.0866601318f, 0.139834568f, -0.118244201f, 0.0252287593f, 0.210143402f, 0.0308484677f, -0.16812402f, 0.158763736f, 0.169146478f, 0.31860885f, 0.249388129f, 0.237770766f, 0.107880093f, 0.000117700773f, 0.0787062272f, 0.299104393f,
    0.368448466f, 0.271744132f, -0.140435264f, -0.0954267234f, 0.163355038f, -0.558981001f, -0.170752555f, -0.166972473f, 0.61223352f, 0.0551898181f, -0.288540125f, 0.159965783f, 0.406533867f, -0.203956649f, -0.145581603f, -0.179020941f, -0.0393064208f, 0.317521602f, -0.164378405f, -0.0858169124f, -0.285638422f, 0.535084605f, 0.161145657f, 0.42541644f, -0.0445161499f, 0.118970707f, -0.148687601f, -0.0591378771f, 0.0203012563f, 0.392663658f, -0.211765513f, -0.343376637f,
    0.200993553f, 0.0443180092f, 0.247476995f, 0.0200921576f, 0.357789755f, -0.0315011814f, 0.160931632f, -0.0836350247f, -0.279688179f, -0.00553597882f, -0.0192640908f, 0.183828801f, -0.174912214f, 0.137962624f, 0.18381837f, -0.125850201f, -0.0642419681f, 0.162903294f, -0.107638039f, 0.188143566f, 0.262034476f, -0.194849536f, -0.0979619473f, -0.0600883476f, 0.525001705f, 0.458931923f, 0.0383900329f, 0.411885202f, 0.438066661f, -0.239756778f, 0.332356811f, 0.0661966428f,
    0.0188187584f, 0.221789017f, 0.0225470178f, -0.0800771564f, -0.358915091f, -0.262277722f, -0.61047411f, -0.374385715f, 0.724573433f, 0.291839957f, -0.290991217f, -0.0364974663f, 0.485944897f, 0.524466574f, 0.134065181f, -0.197197959f, 0.399097115f, 0.256780505f, 0.156581342f, -0.453615159f, -0.497457415f, 0.127178878f, 0.25313127f, -0.314274728f, -0.611724198f, 0.11213921f, 0.203293055f, -0.436157107f, -0.300179571f, 0.0366071574f, -0.0673004165f, 0.271154314f,
    0.308737308f, 0.00501178671f, -0.172214419f, -0.0953558907f, -0.1189138f, -0.175432757f, 0.0210529882f, -0.0984279737f, 0.236021131f, 0.00447452627f, -0.0208913069f, 0.23894608f, 0.0114649329f, 0.639800072f, -0.664610386f, 0.210770205f, 0.112021163f, 0.115053676f, 0.351341575f, -0.278515428f, -0.165017113f, 0.207071736f, -0.0447917134f, 0.491299301f, -0.45426634f, 0.0988068357f, 0.264340371f, 0.0766694918f, -0.444117039f, 0.198959842f, 0.0093752658f, 0.279813141f,
    -0.161044583f, -0.158211306f, 0.276557386f, 0.276885152f, -0.0159016214f, 0.494603634f, 0.289786786f, 0.135232598f, -0.0363040641f, -0.0238395575f, 0.286134362f, 0.473619729f, -0.323555857f, -0.305130869f, 0.104407534f, 0.132412061f, 0.0948306918f, -0.278981388f, 0.494183451f, 0.129651025f, 0.0735466182f, 0.0967708454f, -0.0804868639f, 0.362993896f, -0.0567533746f, -0.212603837f, 0.112667687f, -0.400339633f, 0.235824779f, -0.511774778f, -0.516020596f, 0.0531159267f,
    0.192502454f, 0.187637269f, -0.367971271f, -0.299263716f, -0.07541655f, -0.434561759f, 0.251990348f, 0.331189305f, 0.0240742099f, -0.227166593f, 0.388285279f, -0.425478458f, 0.404988438f, -0.540361047f, 0.62296617f, 0.152871683f, -0.280141532f, 0.420723289f, -0.34970203f, 0.0692691058f, -0.100203946f, -0.128327847f, 0.00864595454f, -1.02269113f, 0.592505455f, 0.0271697976f, -0.132796302f, 0.386708111f, -0.082165882f, 0.492966354f, 0.145453408f, -0.373371124f,
    0.0438935384f, 0.12137223f, 0.0454133824f, 0.0823835582f, 0.259494632f, -0.0113518583f, 0.170474768f, -0.0534079894f, 0.0191233326f, 0.254735976f, 0.128014952f, -0.404358685f, 0.200067624f, -0.15672183f, 0.315916687f, -0.0936820433f, 0.169973597f, 0.163413718f, -0.0348817557f, 0.35170716f, 0.0435958132f, 0.165797204f, -0.0745526031f, -0.202364743f, -0.0672083795f, 0.490481436f, 0.121864714f, 0.395372808f, 0.157852471f, 0.200634703f, 0.26397115f, 0.0452073291f,
    0.809180439f, -0.623035967f, -0.308526427f, -0.343057215f, -0.561266065f, -0.000177464477f, 0.349585533f, 0.033873558f, -0.413854301f, -0.169349447f, -0.0188056733f, 0.278912634f, 0.357604057f, -0.332847714f, 0.0879659131f, 0.346281081f, -0.0545308925f, 0.506354868f, 0.619114399f, 0.297297746f, -0.156048134f, -0.478948563f, -0.176362693f, -0.241949499f, 0.0736491308f, 0.111438416f, -0.31421265f, 0.203690216f, -0.0894924477f, -0.206605867f, 0.245871618f, -0.46120277f,
    -0.084119074f, 0.162209809f, 0.193496332f, 0.115917809f, 0.406925768f, 0.145960733f, -0.43214339f, -0.209274858f, 0.218756363f, 0.257674366f, -0.326850981f, -0.125469252f, 0.110357411f, 0.557104766f, -0.018599147f, -0.0578693897f, 0.191727623f, -0.0613138452f, -0.108279027f, -0.00695540803f, 0.143468469f, 0.306518704f, 0.0109219393f, 0.396790206f, -0.0871009752f, -0.355404675f, 0.37639913f, -0.252412766f, 0.101291321f, -0.161709383f, -0.349894583f, 0.263056576f,
    0.000573678582f, -0.0790084153f, 0.0908731297f, 0.0236668326f, -0.240788713f, 0.298422396f, 0.125955731f, -0.604256213f, -0.0974165499f, -0.157874376f, 0.297587812f, 0.203458384f, -0.173907489f, -0.0204736702f, -0.105598517f, 0.211948931f, 0.173011556f, -0.0936119705f, 0.385200113f, 0.167127341f, -0.048250135f, 0.0217395779f, -0.230730638f, 0.132175326f, 0.191836461f, -0.0569742024f, -0.168939084f, -0.301103562f, 0.157449856f, -0.327694684f, 0.2011372f, -0.0340213962f,
    -0.0370072573f, 0.00947244279f, -0.109992847f, 0.310793668f, 0.123279557f, 0.0316078961f, 0.122731045f, 0.236932233f, -0.0105104065f, 0.0111092404f, 0.183368862f, 0.0427273065f, -0.229754254f, 0.243181661f, -0.27475217f, -0.0518649481f, -0.239523962f, -0.233427316f, 0.0163483042f, -0.0145403761f, 0.102519959f, -0.31221047f, 0.0561117344f, -0.426578194f, 0.147885531f, 0.225288302f, 0.036603909f, -0.0317530259f, -0.102460548f, -0.206939623f, 0.389977992f, 0.348703116f,
    0.300651908f, -0.0786216632f, 0.0766811445f, -0.232240245f, -0.31476137f, 0.382005244f, -0.0609974191f, -0.0844080225f, -0.11306414f, -0.757507026f, -0.0710584596f, -0.233829275f, 0.0353841819f, 0.276251197f, 0.459300876f, 0.0669124722f, -0.0392676294f, 0.273607612f, -0.0248124395f, -0.0138374893f, -0.191125125f, 0.276675701f, 0.105929255f, 0.273813665f, -0.142166838f, -0.0830916166f, 0.129607663f, 0.0148030035f, 0.00259920023f, 0.351795048f, -0.0909933522f, 0.506224751f,
    0.184856176f, 0.30876261f, -0.312069565f, -0.171617717f, 0.179934517f, 0.0175372809f, -0.164909244f, 0.385256648f, -0.193937302f, -0.200456202f, 0.223086298f, -0.00374421547f, -0.199794516f, 0.0854357257f, 0.0647149011f, -0.341387123f, -0.324959695f, -0.192307875f, -0.552379429f, 0.13436687f, 0.223058447f, 0.279084623f, 0.417112648f, -0.479096889f, 0.197769254f, 0.0737655684f, 0.267445773f, 0.578764081f, -0.117706597f, 0.0587642267f, -0.292934924f, 0.0688031837f,
    0.115541868f, 0.0550147854f, 0.356639683f, 0.254193813f, 0.130711019f, 0.0475161597f, -0.268756926f, -0.133773416f, 0.259699613f, 0.163793042f, 0.1553725f, 0.157902017f, -0.0968688205f, -0.275021166f, 0.402906448f, 0.0478917956f, -0.130577162f, -0.298735887f, 0.285018802f, 0.0517405383f, 0.0702116638f, -0.0601593331f, 0.107337184f, 0.385489315f, -0.0203368645f, 0.385612041f, -0.0242454596f, -0.299137652f, 0.147092715f, -0.0416566245f, -0.233337462f, -0.0817524716f,
    0.1554095f, -0.00900161546f, 0.141098827f, 0.021432085f, 0.313377351f, -0.0530494638f, 0.566693842f, -0.319277883f, 0.333812088f, -0.226253569f, -0.175335154f, 0.418760061f, 0.190115988f, 0.114816725f, -0.00455043325f, -0.198493108f, 0.145247653f, 0.0389128625f, 0.0312550478f, 0.201496974f, 0.0470256209f, 0.175075233f, -0.010763403f, 0.238691121f, 0.00523319282f, -0.370180696f, -0.0308528729f, 0.000748023042f, 0.335763603f, 0.114802159f, -0.0989655182f, 0.0299551953f,
    -0.069494687f, 0.17211996f, 0.296393782f, 0.0507461764f, -0.0360321812f, 0.194071203f, -0.0290189851f, 0.312176645f, 0.0366169624f, -0.244950235f, -0.25154683f, -0.424865812f, -0.379861027f, 0.264959723f, 0.111587368f, 0.0410544835f, 0.0509979203f, 0.488499343f, 0.250739604f, -0.105931729f, -0.168175176f, 0.10739477f, 0.123444632f, 0.588644326f, -0.118019238f, -0.384434462f, -0.125294954f, 0.0419338867f, -0.27035448f, -0.142193556f, -0.1015229f, 0.35450843f,
    -0.397058815f, 0.176933527f, 0.455735385f, 0.0700004101f, 0.107157737f, -0.210666597f, -0.282572597f, 0.0511073172f, 0.24354665f, -0.06868238f, -0.126348957f, -0.166415155f, 0.106257409f, 0.172171801f, 0.0663427785f, -0.157016516f, 0.190445468f, -0.303369373f, 0.0636484548f, -0.124385349f, 0.0531595908f, 0.177040666f, 0.119977862f, 0.713813305f, 0.261339664f, -0.296622634f, -0.198220596f, -0.00405535102f, -0.0434128493f, -0.398237586f, -0.185699821f, 0.230631173f,
    0.0643380061f, -0.16121234f, 0.115312099f, 0.352105767f, -0.11250066f, 0.603336096f, 0.450910568f, 0.124166407f, -0.340573281f, 0.036025431f, 0.0318605602f, 0.292457104f, -0.691040337f, 0.2675713f, -0.0246233996f, -0.0436727516f, -0.109680854f, -0.427013099f, 0.0883360654f, -0.0210157391f, 0.00232433924f, -0.426133692f, 0.0136386594f, -0.172981068f, 0.0650517419f, 0.197050527f, 0.109973706f, -0.241664365f, 0.204254791f, -0.51016593f, 0.321111828f, 0.0306054596f,
    -0.505877972f, 0.596410573f, -0.15897961f, 0.140611663f, -0.0684867948f, -0.237672746f, 0.0610235222f, 0.345466793f, 0.38235569f, -0.12299709f, 0.102715828f, 0.0619508028f, 0.118861996f, 0.373060226f, -0.261638224f, 0.0340320915f, 0.0837113261f, 0.179804996f, -0.0106162606f, -0.439685762f, -0.143327847f, 0.0700868741f, 0.402811885f, 0.00681368914f, -0.126162738f, 0.03028455f, 0.534909785f, -0.150812849f, 0.354534447f, -0.178265348f, 0.00618319586f, 0.199878603f,
    -0.0255187787f, 0.0477016903f, 0.338185579f, 0.489034355f, 0.447065711f, 0.0714691728f, 0.761364877f, 0.261013329f, -0.416995525f, -0.260980666f, 0.321961701f, -0.203506634f, -0.46904248f, 0.301344424f, -0.210267603f, 0.334277213f, 0.216383263f, -0.0678225011f, 0.00224343198f, 0.192709699f, 0.067749761f, -0.15354602f, 0.121517569f, -0.187170476f, 0.123257294f, -1.0181582f, -0.47891739f, -0.102486029f, -0.545103729f, -0.474184543f, 0.133044526f, 0.264817208f,
    0.304148018f, -0.404725701f, 0.168560132f, 0.121957093f, -0.232982904f, -0.20662412f, -0.173909292f, -0.549409747f, 0.10684184f, 0.72192955f, -0.261545032f, 0.410919577f, 0.197428241f, -0.202634335f, 0.0789731592f, -0.380837917f, 0.695336401f, 0.0206042938f, 0.329980195f, 0.384533495f, -0.230556056f, -0.101097584f, -0.216656119f, 0.141510054f, 0.0628904849f, -0.188787952f, -0.0510104708f, -0.490984321f, 0.568116963f, -0.270226866f, 0.132168591f, -0.1850297f,
    0.217708498f, -0.123355225f, 0.151625767f, 0.688805878f, 0.0499566421f, 0.314332753f, -0.347820282f, 0.0151352314f, 0.101530522f, 0.607140899f, 0.269584507f, 0.090236187f, -0.0059454171f, -0.231205419f, 0.346963465f, -0.0718760565f, 0.2495123f, -0.224613294f, -0.182446286f, 0.426787496f, -0.0145842787f, 0.0917320848f, 0.00138968311f, 0.252384245f, -0.362856537f, -0.172769055f, 0.491274834f, -0.136108682f, 0.269482046f, 0.0735642016f, 0.0162492562f, 0.289246738f,
    -0.0938188285f, -0.349576354f, 0.337016732f, 0.217022106f, -0.0719263479f, 0.161315709f, 0.0123178437f, -0.26282236f, -0.17548953f, 0.156726077f, -0.0271130223f, 0.2760593f, 0.324815482f, -0.203455389f, 0.271409839f, -0.0699779242f, 0.474062443f, 0.088888593f, 0.0293800645f, 0.270271271f, -0.222221121f, 0.260857642f, -0.0423343219f, -0.340604395f, -0.0410226882f, 0.410283536f, 0.0184817705f, -0.302104533f, 0.759869099f, -0.0694178119f, -0.232514322f, -0.0948844776f,
    -0.253828764f, 0.60437423f, 0.12194477f, -0.165981859f, 0.137612939f, 0.147229791f, -0.278387934f, 0.157747507f, -0.0251450166f, -0.241533235f, 0.233134717f, 0.0658103302f, -0.113947608f, 0.131550848f, -0.349306434f, -0.205585137f, 0.0480462722f, -0.0430218987f, 0.0482608452f, -0.300305575f, 0.164662138f, -0.249896705f, 0.105357841f, 0.415626973f, 0.485576302f, -0.179038033f, 0.274118394f, 0.0274957642f, -0.252176136f, -0.0299785938f, 0.0191184897f, -0.294532895f,
    0.604215443f, -0.7918787f, 0.0777187869f, 0.206664219f, 0.218861327f, 0.204747409f, 0.298704356f, -0.241114452f, -0.328999728f, 0.102707557f, -0.115689389f, 0.0609212518f, 0.19437933f, -0.340800792f, 0.0293223299f, -0.393549174f, 0.269848257f, -0.330115616f, -0.388046801f, 0.205048084f, 0.254054785f, 0.0618595257f, -0.294022322f, -0.236658722f, 0.550388694f, 0.418617785f, -0.0774772018f, -0.0381478332f, 0.14394936f, -0.13048178f, 0.00337819965f, -0.217608005f,
    -0.358344257f, -0.0520537421f, 0.359357089f, -0.0606788211f, 0.594715536f, 0.280645013f, 0.148928046f, -0.276905119f, 0.0169079937f, 0.133727118f, -0.0964667499f, 0.0932588801f, -0.189934492f, 0.00588707253f, -0.0526616126f, -0.257501841f, 0.00381319039f, -0.659065604f, -0.238229439f, 0.178453177f, 0.485376716f, 0.00898650382f, -0.125763059f, 0.516322494f, -0.0515852496f, 0.367297053f, -0.159178793f, -0.205300272f, 0.448480844f, -0.261203974f, -0.146663994f, 0.198252529f,
    0.153787598f, 0.329092532f, -0.416867048f, -0.0310195871f, -0.257688105f, -0.311683863f, -0.121798597f, -0.132303059f, 0.782411993f, -0.262077838f, -0.34425348f, 0.0135433162f, 0.220316574f, 0.0217779372f, -0.404159486f, -0.0696695149f, -0.0134172086f, 0.195185438f, 0.00728144171f, -0.1910685f, -0.535575688f, -0.13377203f, 0.0125386585f, -0.0134766996f, -0.272731543f, -0.188978344f, 0.112223998f, 0.163206488f, -0.134435609f, -0.247574359f, -0.0809276178f, 0.157529041f,
    -0.0482694507f, 0.134582713f, 0.197709098f, -0.163985744f, -0.0797249824f, 0.0849819928f, -0.0484712422f, 0.194537252f, -0.250023752f, -0.023890378f, 0.498927921f, 0.42020756f, -0.0273068585f, -0.336601526f, 0.22067742f, 0.0875827745f, 0.0389284305f, -0.160180092f, -1.34379077f, 0.471473753f, 0.207325593f, -0.244608432f, -0.112742141f, -0.173496157f, -0.433417678f, 0.00162674312f, -0.230497122f, 0.349910229f, 0.109807655f, 0.0474578887f, 0.242079303f, -0.127492756f
};

static const ampc_policy_float_t ampc_policy_layer_1_biases[32u] = {
    0.0710404441f, -0.569494545f, 0.761671543f, 0.563339233f, -0.854276776f, 0.350342304f, -0.479874969f, 0.677179515f,
    -0.0477267355f, 0.248674646f, -0.0375227705f, 0.608042836f, -0.948079467f, 0.572156966f, 0.0663187057f, 0.0255577452f,
    0.387550861f, 0.543167055f, 0.300885558f, 0.465638489f, 0.44524914f, 0.103783801f, -0.0962835699f, -0.588400662f,
    -0.566149533f, -0.0800259486f, 0.437352389f, 0.566548169f, 0.03020983f, -0.0341055803f, 0.797651529f, -0.528197169f
};

static const ampc_policy_float_t ampc_policy_layer_2_weights[1024u] = {
    0.181442663f, 0.504457831f, 0.186997756f, 0.0147474362f, -0.196018979f, 0.054768119f, 0.0374957547f, -0.244620427f, -0.0143196331f, 0.66957736f, 0.219483525f, 0.022772355f, -0.400556803f, -0.0892163441f, 0.477996111f, 0.14334099f, 0.0408632681f, -0.135793716f, 0.3067725f, -0.343115121f, -0.465352088f, 0.604102671f, 0.190261677f, 0.035970591f, -0.180617258f, -0.154271483f, 0.356052399f, -0.144730836f, 0.041012913f, 0.123311408f, 0.0960292369f, 0.81459564f,
    0.233448744f, 0.681848407f, 0.197470754f, 0.179657817f, -0.50669384f, -0.00935288146f, -0.427775472f, -0.144623697f, -0.199583948f, -0.512638867f, 0.240306973f, -0.0801800936f, -0.00547515554f, 0.019022027f, 0.14732796f, -0.000396082934f, -0.29490611f, 0.577147245f, -0.0987852737f, -0.0624601655f, 0.0421655364f, 0.4116458f, 0.356448382f, -1.02713716f, -0.625467539f, -0.182131931f, 0.432824403f, -0.204361603f, -0.0645170435f, 0.180985048f, -0.160725966f, 0.432621032f,
    -0.100609593f, -0.00176507258f, 0.117716715f, 0.466974288f, -0.186382815f, 0.227169991f, -0.945944607f, 0.317183405f, 0.340919137f, -1.41498935f, 0.248661458f, -0.945771396f, -0.116534069f, -0.27000919f, -0.274098068f, 0.33323288f, -0.616213858f, 0.171310231f, 0.163616911f, -0.535620809f, 0.276355624f, 0.374027371f, -0.154936686f, -0.591402411f, 0.00762555376f, 0.0373056605f, -0.0565402359f, -0.313060045f, -0.748728275f, 0.453408659f, -0.215698391f, -0.791292071f,
    -0.31017828f, -1.09843791f, -0.119912587f, 0.114416413f, 0.117500149f, -0.102289386f, -0.360194117f, 0.0683140084f, -0.105411798f, -0.292889357f, 0.288306236f, -0.808857739f, -0.0291702691f, 0.242407963f, -0.205766127f, 0.45074144f, 0.293341607f, 0.247643769f, 0.183346108f, -0.0633949563f, 0.477201849f, -0.0512171723f, 0.230416343f, -0.442250818f, -0.012255555f, -0.113407306f, -0.334361374f, 0.359606236f, 0.439469218f, 0.156881988f, 0.0769867003f, -0.471273512f,
    0.000906691246f, -0.218016967f, 0.31486848f, -0.209261894f, -0.453360647f, -0.322209269f, 0.0144844325f, -0.00522475876f, -0.259756058f, -0.119862176f, 0.352207065f, -0.243622392f, 0.199777663f, -0.0229841061f, 0.262742937f, -0.250643134f, 0.114981845f, 0.0900218934f, 0.180010617f, 0.45210433f, -0.349565893f, -0.401886135f, 0.0179123413f, 0.533421099f, 0.0689762905f, -0.252372891f, 0.0406672247f, 0.156019911f, -0.0254003964f, -0.270250857f, -0.0616690218f, 0.320450395f,
    -0.146033078f, -1.0660789f, 0.0201275107f, 0.296164125f, 0.293291926f, 0.173327595f, 0.086525701f, -0.416096985f, 0.570535004f, -0.399957538f, 0.205633849f, -0.503250778f, 1.03402483f, -0.0166273154f, 0.365309864f, 0.311885387f, -0.221913159f, 0.0709303916f, -0.14106667f, -0.133216515f, -0.199250221f, 0.180186138f, 0.115734272f, -0.297189385f, 0.366382509f, -0.00595767377f, -0.0590449646f, 0.124076106f, 0.355003059f, 0.485541165f, -0.347007781f, -0.355224907f,
    0.11902573f, 0.256115049f, 0.493189096f, 0.0407283753f, -0.187251061f, 0.244043782f, -0.206232756f, -0.458315283f, 0.0518793203f, -1.16255701f, 0.0998054817f, 0.351414919f, -0.112465635f, -0.298654884f, -0.168737978f, 0.00622986117f, -0.276132405f, 0.278489143f, 0.190030769f, -0.0796994716f, -0.442869067f, 0.078660287f, 0.0950131342f, 0.271081001f, -0.391445309f, -0.12950395f, 0.0762914941f, -0.440681338f, -0.0930998623f, -0.319764525f, 0.394819915f, -0.00452188682f,
    0.445974946f, -0.0669879764f, -0.21710293f, -0.170997277f, 0.537109196f, 0.450470001f, 0.330492169f, -0.295391768f, 0.284360051f, -0.490054786f, -0.00385701866f, -0.452141017f, 0.164766192f, 0.195774272f, 0.218667373f, 0.087820515f, -0.0256948266f, -0.0894190595f, 0.114796102f, -0.0946575701f, -0.0146630974f, -0.121172063f, -0.146761417f, 0.624468982f, -0.45461145f, 0.0808838308f, -0.0266093239f, 0.0493031181f, -0.121828035f, -0.063758865f, -0.356324464f, 0.432649642f,
    -0.449162871f, -0.287797004f, 0.154108882f, 0.209859505f, 0.500742912f, 0.0323682353f, 0.777754307f, 0.0457485579f, -0.514087796f, 0.199148804f, 0.445474952f, 0.312524378f, 0.580776632f, -0.511360109f, -0.374253929f, -0.0325097479f, 0.0360026062f, 0.494626254f, -0.285365731f, 0.244182304f, -0.0567838959f, 0.18390514f, 0.188245639f, -0.374993801f, 0.13400735f, -0.123010755f, -0.469966352f, -0.280252427f, 0.278112322f, 0.0345479138f, 0.516303837f, -0.257675737f,
    -0.0428013168f, -0.167027801f, 0.481739938f, 0.0145513816f, 0.442452908f, -0.289391875f, 0.285315037f, -0.0521815866f, 0.122779049f, -0.0658004507f, 0.038800478f, -0.0861661807f, 0.540332615f, -0.0690119639f, 0.0261703786f, 0.256701082f, 0.144017473f, 0.190814152f, -0.433955193f, -0.415907979f, -0.181791767f, 0.0060808789f, 0.491664231f, 0.478718251f, 0.0224290099f, 0.0907649323f, 0.279408067f, 0.163645878f, 0.163955793f, 0.101722181f, -0.302907526f, -0.683909357f,
    -0.154574648f, -0.596522868f, 0.224719137f, 0.586971104f, 0.00969260652f, -0.325297832f, 0.376420498f, -0.161004499f, -0.095694229f, 0.113528982f, -0.0362757109f, -0.0468104295f, -0.131702602f, -0.0816095471f, -0.0561558753f, 0.231210351f, -0.417768717f, -0.018407898f, -0.152241275f, 0.0685433745f, 0.279160708f, 0.624937534f, -0.0550636612f, -0.433975786f, 0.411120683f, 0.108331501f, 0.0720864758f, 0.201146409f, -0.257572353f, 0.014373702f, -0.038392432f, -1.14720547f,
    -0.30792585f, 0.111645199f, 0.421729445f, -0.113385133f, -0.622828484f, 0.0847722292f, 0.00510156434f, 0.152642384f, -0.322654516f, -0.409196496f, -0.0546814613f, 0.615343034f, -0.64861697f, -0.386207163f, 0.0694830343f, -0.372922391f, 0.169252157f, 0.02161563f, 0.458435208f, 0.529078066f, -0.55215019f, -0.176144555f, 0.131035894f, -0.209770128f, 0.0331382193f, -0.317468822f, 0.0768276155f, -0.203099325f, 0.688726068f, -1.09037304f, 0.331272006f, 0.232894599f,
    -0.149660438f, 0.321432799f, 0.331584275f, 0.220955774f, 0.245070979f, 0.207116127f, -0.392440677f, -0.682628572f, -0.075391762f, -0.760753632f, 0.213658988f, 0.0691932067f, -0.0661186948f, 0.00507832039f, -0.88822639f, 4.65179e-05f, 0.0555947907f, 0.125607222f, 0.145677492f, 0.246301129f, -0.132303894f, -0.100000635f, 0.103855073f, 0.0160729177f, 0.105383649f, 0.116302416f, -0.356949359f, -0.263499856f, -0.187028289f, -0.359439313f, 0.000327779737f, 0.221541494f,
    -0.101284303f, 0.525832474f, 0.157448962f, -0.054500591f, -0.0905902162f, 0.0340538211f, -0.126577958f, -0.0432175323f, 0.232391432f, -0.128135815f, -0.447497636f, -0.0613962226f, 0.0293451361f, 0.187965378f, 0.43503952f, -0.0132962838f, -0.436646163f, -0.691984892f, 0.485515714f, 0.0141241485f, 0.109784715f, -0.630962312f, -0.0562270544f, 0.0758581832f, 0.0993496701f, 0.14618212f, 0.167518884f, -0.230562702f, 0.0627800375f, -0.0966366008f, 0.223187938f, -0.216901332f,
    0.0350461267f, -0.390744299f, 0.315055549f, 0.122294798f, 1.05758154f, -0.191103786f, 0.821616113f, -0.20653148f, 0.164095595f, -0.376021355f, 0.0455734991f, 0.129774109f, 0.142178878f, -0.855128944f, 0.149729818f, -0.0248813573f, -0.104078457f, 0.193244666f, 0.245780483f, 0.0512929559f, -0.286928236f, 0.0258983839f, -0.025055442f, 0.509188652f, 0.594925225f, 0.14240697f, -0.306175143f, 0.00115947949f, -0.239037797f, -0.0664691329f, -0.0368127301f, 0.259744823f,
    0.287617117f, 0.0168661028f, 0.664082468f, -0.0460315458f, -0.552581787f, -0.0724024251f, 0.819449067f, 0.316880256f, 0.481381297f, -0.012206912f, -0.227181435f, 0.396040261f, 0.123849377f, -0.0679946989f, -0.0749713331f, -0.127423838f, -0.152170256f, -0.0590262525f, -0.177190498f, 0.119049534f, 0.18514961f, -0.399738222f, -0.0882409066f, 0.98070395f, -0.0620623827f, 0.219288841f, 0.268860251f, -0.541341305f, -0.305556834f, 0.0877047032f, -0.112557143f, -0.215597689f,
    0.0845419988f, 0.223748341f, 0.692194402f, -0.000493515749f, 0.106090479f, 0.221870184f, 0.355580837f, -0.272549152f, 0.12562719f, -0.431514978f, 0.145723388f, 0.995288312f, 0.289678991f, -0.576329172f, -0.0409183055f, -0.568484902f, -0.707853138f, 0.280238658f, 0.303337455f, -0.36898002f, -0.27650857f, -0.2436544f, 0.179716647f, -0.0645242631f, -0.228856012f, -0.10337498f, 0.136569276f, -0.0548628978f, 0.202540576f, 0.340529621f, -0.034380883f, -0.395946056f,
    -0.370209426f, -0.577999294f, -0.174588352f, 0.0700180158f, 0.143592298f, 0.440832317f, 0.0850342214f, 0.159961581f, -0.394131184f, 0.408437133f, 0.223116398f, 0.12080247f, 2.3770961e-05f, -0.0188615043f, 0.331398815f, -0.00178609975f, 0.713107109f, 0.113335118f, -0.297050506f, 0.561818361f, 0.0433788933f, 0.0562409908f, 0.425364345f, -0.317485482f, 0.0627659932f, 0.315065861f, -0.288644373f, 0.756065249f, 0.908472061f, -0.671746194f, 0.343373686f, 0.677217305f,
    0.0840065181f, -0.225095436f, -0.157118082f, 0.0278236084f, -0.0658148155f, 0.0950694978f, 1.17112541f, -0.382146746f, -0.0246251691f, -0.200774267f, -0.053507369f, 0.093189247f, -0.924026072f, 0.5724563f, 0.197843507f, -0.324845731f, 0.190612867f, -0.228501886f, 0.278731674f, 0.0998442993f, 0.16038397f, -0.0443902127f, -0.0300281551f, 0.357455671f, -0.0843242481f, -0.1683781f, -0.230700925f, 0.0890735611f, 0.0338520072f, -0.449522763f, -0.185957223f, 0.658139348f,
    0.00693107769f, 0.0418805145f, 0.0359649546f, -0.070043698f, 0.411331713f, 0.542194188f, -1.08431721f, -0.0657508969f, -0.178741783f, -0.227374464f, 0.0741422921f, -0.666050732f, -0.337387472f, 0.578041434f, 0.0432040729f, 0.148791879f, -0.212168902f, 0.563509107f, -0.233694732f, 0.305397391f, -0.233201876f, -0.577225447f, -0.251462281f, 0.0594084449f, -0.112050064f, -0.262477428f, 0.156733349f, 0.108674198f, -0.0205952674f, 0.143941298f, -0.271125287f, 0.00782437436f,
    -0.426729381f, -0.0328625403f, -0.469984144f, 0.295742512f, 0.0937878489f, 0.219464108f, 0.271258384f, 0.00930481218f, 0.533402205f, 0.0886695981f, 0.100500353f, 0.0540688336f, 0.410942882f, 0.237598822f, 0.222775355f, -0.00344940973f, 0.250581175f, 0.0514073856f, -0.47777158f, 0.117511347f, -0.152869791f, -0.415507585f, 0.295279354f, 0.116249397f, -0.114612579f, -0.225905091f, -0.210260063f, -0.387932986f, 0.0952409878f, 0.165138021f, -0.049018871f, 0.13400878f,
    -0.0321839154f, 0.625040472f, 0.286087304f, 0.194375455f, 0.212627217f, 0.331329644f, -0.119859301f, -0.255527496f, 0.0860679671f, 0.13046062f, -0.022705866f, 0.578288198f, -0.0628821552f, -0.363384098f, 0.105085939f, -0.520413876f, -0.315027952f, -0.102966107f, 0.421539396f, -0.157559872f, -0.25881958f, -0.361648917f, 0.249134168f, 0.0192172695f, -0.25686425f, -0.109211326f, 0.265451699f, -0.208901316f, 0.119578943f, 0.443064749f, -0.00918696634f, -0.513925076f,
    0.316296935f, -0.19497478f, -0.238748193f, -0.71770817f, 0.0623940378f, 0.140551776f, -0.601049423f, 0.337415427f, -0.328906804f, 0.0533864312f, 0.283103853f, -0.272396743f, -0.369174719f, 0.0626609921f, 0.071992971f, 0.289270848f, -0.00647475431f, -0.107729785f, -0.0405048952f, -0.432697386f, 0.294889599f, 0.557386756f, -0.107862368f, 0.0930314884f, 0.0545630939f, 0.277371317f, -0.126262367f, -0.102701969f, 0.213926569f, 0.0666617826f, -0.209891438f, 0.32713455f,
    0.282463461f, -0.0738543496f, -0.16340211f, 0.278538108f, 0.116776198f, -0.159609661f, 0.0639832169f, 0.130258709f, 0.265464157f, 0.126727104f, -0.301030874f, -0.097101599f, 0.123180583f, -0.550302088f, 0.377707124f, -0.295189351f, -0.453340709f, -0.282654703f, 0.273332596f, 0.0274945758f, 0.0725169256f, 0.354025275f, -0.01418602f, -0.748599589f, -0.107118569f, 0.380598694f, 0.0887188539f, 0.229026943f, 0.535802245f, -0.0720491484f, -0.417295486f, -0.582060814f,
    0.308801413f, -0.466391414f, -0.562412739f, 0.108627327f, -0.452814758f, 0.195691958f, -1.08394766f, -0.287340492f, -0.510468245f, -0.241088733f, 0.249033645f, -0.363602996f, -0.140654579f, 0.370362312f, 0.318906039f, 0.112712801f, 0.0472320244f, -0.326940298f, -0.525206149f, -0.437181115f, 0.361370504f, 0.289822876f, -0.104092397f, -0.403071195f, -0.32426092f, 0.0460900702f, 0.169331133f, 0.435734123f, -0.260508686f, -0.066842109f, -0.501445234f, 0.216128975f,
    0.693998516f, 0.093158558f, -0.124814093f, 0.0754475147f, -0.346915543f, 0.15393199f, -0.939734519f, -0.386519015f, -0.325624406f, -0.791855812f, -0.10620176f, -0.464394659f, -0.100397587f, 0.633838952f, 0.0224235915f, 0.0194964632f, -0.107937217f, 0.18248184f, 0.0149318343f, -0.185909271f, 0.36199227f, 0.00429808022f, -0.193748698f, 0.262522399f, -0.632137418f, 0.0991314799f, 0.312382489f, 0.0192452725f, -0.656326294f, -0.117096446f, -0.395832866f, 0.366732925f,
    0.249881938f, -0.749985874f, 0.0707359314f, -0.0865526646f, -0.167491123f, 0.27666378f, -1.06588864f, 0.375307769f, 0.0266076159f, 0.150297448f, 0.285559595f, -0.85147965f, -0.194226027f, 0.403061241f, 0.107564762f, 0.154632688f, 0.0766009241f, 0.0206360463f, 0.462360352f, -0.373606384f, 0.286775082f, 0.464469641f, 0.0252174679f, -0.575834215f, 0.00155384082f, 0.49137345f, 0.317678422f, 0.594272614f, -0.00150780927f, 0.577101231f, -0.358460307f, -0.0758294016f,
    0.18543376f, -0.0587228425f, 0.594159365f, 0.0680182576f, 0.306146473f, -0.495141387f, 0.188556045f, 0.287212372f, -0.298852593f, 0.102674149f, -0.290520132f, 0.0102461055f, -0.446445793f, 0.117884047f, -0.330659837f, 0.0851217583f, 0.0694043711f, 0.479182899f, 0.376880288f, 0.668693244f, 0.134978175f, 0.0817465633f, -0.127047777f, 0.243392795f, 0.277011544f, 0.188953876f, 0.251407951f, -0.196333706f, 0.196742192f, -0.375962019f, 0.406554013f, -0.126700893f,
    0.247888207f, 0.0732749775f, -0.258653581f, 0.195765719f, -0.0224505626f, 0.0178376827f, -1.00641418f, -0.432419509f, 0.171855837f, -0.332813472f, 0.0416974053f, -0.506579399f, 0.227584973f, -0.113878071f, 0.053824909f, -0.170463398f, -0.350796103f, -0.0119433329f, -0.123314716f, -0.0065756673f, 0.388366878f, -0.44382143f, 0.143221766f, -0.552448153f, -0.209818631f, -0.0541659184f, -0.20777078f, 0.45720917f, -0.0793142393f, 0.135377392f, -0.126268208f, -0.202963933f,
    0.00892152451f, -0.0329390094f, 0.289948404f, 0.111869507f, -0.0658313781f, -0.371507376f, -0.29853797f, 0.0116351107f, -0.191267356f, 0.0869934112f, -0.124097802f, -0.00949939061f, 0.482854813f, -0.231667235f, 0.237355009f, 0.146027058f, 0.140183449f, 0.504999459f, 0.153685719f, 0.119683877f, -0.779268682f, -0.812423825f, 0.310852289f, -0.97420615f, 0.344253659f, -0.179526642f, -0.0587259643f, -0.361837536f, 0.359536737f, -0.209452167f, -0.644645691f, 0.0905371383f,
    -0.254210889f, -0.787713528f, 0.0182845071f, 0.210950956f, 0.311338931f, 0.120501697f, -0.0295087341f, 0.182893798f, 0.00891534891f, 0.697307825f, -0.37941125f, 0.0307506155f, -0.129117504f, 0.150443718f, -0.207532927f, -0.161006302f, 0.255754977f, -0.0740104094f, 0.224798307f, 0.461460888f, 0.332855523f, -0.0498079397f, -0.338084072f, 0.196298882f, 0.278287888f, 0.33156985f, -0.491380006f, 0.199342132f, -0.0511485003f, -0.635809004f, 0.494057149f, 0.269563943f,
    0.413073957f, -0.926949322f, -0.460316837f, 0.106439576f, -0.311487019f, 0.713333607f, 0.28209585f, -0.101379842f, 0.0401036665f, -0.13751848f, -0.0154913859f, -0.398309618f, 0.673067391f, -0.151021004f, 0.304001212f, -0.146029651f, -0.00772678945f, -0.0775838271f, -0.359350055f, -0.734228849f, -0.0600856841f, 0.115059413f, 0.080933392f, -0.232011408f, -0.742190421f, 0.174094975f, -0.0164995659f, 0.179448172f, -0.67734766f, 0.155518636f, -0.298348457f, 0.1838696f
};

static const ampc_policy_float_t ampc_policy_layer_2_biases[32u] = {
    0.0462947637f, 0.115268528f, 0.497874439f, 0.111284196f, 0.413651437f, 0.184603974f, 0.0924726129f, -0.980211973f,
    0.293959111f, -0.865330875f, 0.162759647f, 0.665680468f, -0.133267134f, -0.478753656f, -0.286280692f, 0.162415996f,
    0.182546839f, 0.247718871f, 0.408117324f, 0.410904288f, -0.474610478f, -0.0168146584f, -0.347806513f, -0.048572056f,
    -0.58363229f, 0.709769011f, 0.270621091f, 0.346592277f, -0.0290218275f, 0.230628327f, 0.506387055f, 0.335530668f
};

static const ampc_policy_float_t ampc_policy_layer_3_weights[128u] = {
    0.21051456f, 0.389592201f, -0.0385671109f, 0.143656671f, -0.146305248f, 0.226116598f, -0.132804036f, 0.101106629f, 0.153295904f, 0.102450281f, 0.346630067f, 0.093301475f, 0.388491958f, 0.668027878f, -0.0490339026f, -0.0625133216f, -0.21375972f, 0.256161928f, 0.0789243653f, 0.381391019f, -0.31247589f, 0.613266647f, 0.145483211f, -0.201031566f, -0.137758359f, -0.0231131613f, -0.554723561f, -0.736619234f, -0.221738264f, -0.170878679f, -0.147496238f, 0.118823916f,
    0.567293942f, 0.238177717f, -0.0799055994f, 0.0710498616f, 0.27436024f, 0.273458421f, -0.0787356123f, -0.0674371719f, -0.0905999765f, 0.653756022f, -0.700622022f, 0.0748274103f, 0.321794808f, -0.569694996f, -0.19060275f, -0.121589653f, -0.107273139f, -0.457114995f, 0.19739455f, -0.146217778f, -0.110173099f, 0.197400391f, -0.527299881f, 0.236016557f, 0.0943051204f, 0.158268169f, -0.22264111f, 0.669375896f, -0.106545053f, -0.0113939485f, -0.092129454f, -0.130801186f,
    -0.279199153f, -0.199424446f, -0.95019263f, -0.496226937f, 0.385382533f, 0.45561859f, 0.807896078f, -1.23450422f, -1.07078791f, 0.367260128f, 0.0251558218f, 0.916626453f, 0.970729828f, -0.109723352f, 0.663383722f, -0.762721241f, -0.735354245f, -0.244069383f, 1.41546011f, 0.525611699f, 1.11262763f, 0.656152129f, 0.864999652f, 0.30145061f, -1.3873136f, 0.726154566f, 0.135043025f, -0.0893916413f, 0.299155682f, -0.712232411f, 1.1399157f, 0.665882528f,
    0.271689206f, -0.449190408f, 0.358368933f, 0.0285909232f, -0.630914986f, 0.178714409f, -0.474993974f, -0.566867352f, -0.410689414f, 0.0713583529f, -0.199050307f, -0.801384509f, -0.191188172f, 0.280288696f, -0.00257791881f, -0.368600309f, 0.356348306f, 0.381098002f, -0.393635958f, -0.0476073697f, 0.38000679f, -0.146547452f, 0.292943507f, 0.0870947465f, -0.706446886f, 0.799862385f, -0.471575975f, 0.577325284f, -0.0848313943f, -0.724937737f, -0.716036797f, 0.227269083f
};

static const ampc_policy_float_t ampc_policy_layer_3_biases[4u] = {
    0.174905926f, -0.153007939f, -0.059012305f, -0.184930429f
};

const ampc_policy_layer_t ampc_policy_layers[AMPC_POLICY_NUM_LAYERS] = {
    {
        .input_dim = 12u,
        .output_dim = 32u,
        .activation = AMPC_POLICY_ACTIVATION_LEAKY_RELU,
        .negative_slope = 0.00999999978f,
        .weights = ampc_policy_layer_0_weights,
        .biases = ampc_policy_layer_0_biases
    },
    {
        .input_dim = 32u,
        .output_dim = 32u,
        .activation = AMPC_POLICY_ACTIVATION_LEAKY_RELU,
        .negative_slope = 0.00999999978f,
        .weights = ampc_policy_layer_1_weights,
        .biases = ampc_policy_layer_1_biases
    },
    {
        .input_dim = 32u,
        .output_dim = 32u,
        .activation = AMPC_POLICY_ACTIVATION_LEAKY_RELU,
        .negative_slope = 0.00999999978f,
        .weights = ampc_policy_layer_2_weights,
        .biases = ampc_policy_layer_2_biases
    },
    {
        .input_dim = 32u,
        .output_dim = 4u,
        .activation = AMPC_POLICY_ACTIVATION_LINEAR,
        .negative_slope = 0.0f,
        .weights = ampc_policy_layer_3_weights,
        .biases = ampc_policy_layer_3_biases
    }
};

#ifdef __cplusplus
}
#endif
